<?xml version="1.0"?>
<opencv_storage>
<cascade>
  <stageType>BOOST</stageType>
  <featureType>HAAR</featureType>
  <height>20</height>
  <width>20</width>
  <stageParams>
    <boostType>GAB</boostType>
    <minHitRate>9.9900001287460327e-01</minHitRate>
    <maxFalseAlarm>5.0000000745058060e-02</maxFalseAlarm>
    <weightTrimRate>9.4999999999999996e-01</weightTrimRate>
    <maxDepth>1</maxDepth>
    <maxWeakCount>100</maxWeakCount></stageParams>
  <featureParams>
    <maxCatCount>0</maxCatCount>
    <featSize>1</featSize>
    <mode>ALL</mode></featureParams>
  <stageNum>3</stageNum>
  <stages>
    <!-- stage 0 -->
    <_>
      <maxWeakCount>7</maxWeakCount>
      <stageThreshold>-5.1140797138214111e-01</stageThreshold>
      <weakClassifiers>
        <_>
          <internalNodes>
            0 -1 9 1.2875624932348728e-02</internalNodes>
          <leafValues>
            -6.9741696119308472e-01 8.2532751560211182e-01</leafValues></_>
        <_>
          <internalNodes>
            0 -1 13 4.0985797531902790e-03</internalNodes>
          <leafValues>
            -5.6993597745895386e-01 9.0722239017486572e-01</leafValues></_>
        <_>
          <internalNodes>
            0 -1 8 -1.4529660344123840e-02</internalNodes>
          <leafValues>
            7.1472311019897461e-01 -7.0288103818893433e-01</leafValues></_>
        <_>
          <internalNodes>
            0 -1 18 -1.2578701600432396e-02</internalNodes>
          <leafValues>
            6.5052086114883423e-01 -7.3955816030502319e-01</leafValues></_>
        <_>
          <internalNodes>
            0 -1 0 1.3327814638614655e-02</internalNodes>
          <leafValues>
            -8.1896871328353882e-01 5.1312464475631714e-01</leafValues></_>
        <_>
          <internalNodes>
            0 -1 5 4.2822514660656452e-03</internalNodes>
          <leafValues>
            -4.8424386978149414e-01 9.5533567667007446e-01</leafValues></_>
        <_>
          <internalNodes>
            0 -1 1 -1.5836544334888458e-02</internalNodes>
          <leafValues>
            6.3435930013656616e-01 -8.5912042856216431e-01</leafValues></_></weakClassifiers></_>
    <!-- stage 1 -->
    <_>
      <maxWeakCount>5</maxWeakCount>
      <stageThreshold>-1.3624869287014008e-01</stageThreshold>
      <weakClassifiers>
        <_>
          <internalNodes>
            0 -1 7 4.5475494116544724e-03</internalNodes>
          <leafValues>
            -6.3912308216094971e-01 9.3120390176773071e-01</leafValues></_>
        <_>
          <internalNodes>
            0 -1 12 4.5327097177505493e-03</internalNodes>
          <leafValues>
            -4.8028343915939331e-01 9.1792553663253784e-01</leafValues></_>
        <_>
          <internalNodes>
            0 -1 2 -3.7343172152759507e-05</internalNodes>
          <leafValues>
            -9.3160724639892578e-01 5.4524588584899902e-01</leafValues></_>
        <_>
          <internalNodes>
            0 -1 14 4.5967153273522854e-03</internalNodes>
          <leafValues>
            -4.6110808849334717e-01 9.8283576965332031e-01</leafValues></_>
        <_>
          <internalNodes>
            0 -1 11 -2.4018406867980957e-02</internalNodes>
          <leafValues>
            9.0523260831832886e-01 -4.6627962589263916e-01</leafValues></_></weakClassifiers></_>
    <!-- stage 2 -->
    <_>
      <maxWeakCount>8</maxWeakCount>
      <stageThreshold>-3.7609521299600601e-02</stageThreshold>
      <weakClassifiers>
        <_>
          <internalNodes>
            0 -1 2 2.0428846255526878e-05</internalNodes>
          <leafValues>
            6.0256409645080566e-01 -1.</leafValues></_>
        <_>
          <internalNodes>
            0 -1 15 1.1546638794243336e-02</internalNodes>
          <leafValues>
            -9.4455945491790771e-01 4.6949160099029541e-01</leafValues></_>
        <_>
          <internalNodes>
            0 -1 16 -6.3646305352449417e-03</internalNodes>
          <leafValues>
            8.6922019720077515e-01 -5.8531498908996582e-01</leafValues></_>
        <_>
          <internalNodes>
            0 -1 4 2.4436488747596741e-02</internalNodes>
          <leafValues>
            5.2494353055953979e-01 -9.5144265890121460e-01</leafValues></_>
        <_>
          <internalNodes>
            0 -1 6 -6.0163084417581558e-03</internalNodes>
          <leafValues>
            9.1142976284027100e-01 -5.2555394172668457e-01</leafValues></_>
        <_>
          <internalNodes>
            0 -1 3 -4.6538694732589647e-05</internalNodes>
          <leafValues>
            -1. 4.6374392509460449e-01</leafValues></_>
        <_>
          <internalNodes>
            0 -1 17 -6.4346373081207275e-02</internalNodes>
          <leafValues>
            9.9113965034484863e-01 -5.4219436645507812e-01</leafValues></_>
        <_>
          <internalNodes>
            0 -1 10 9.1927666217088699e-03</internalNodes>
          <leafValues>
            -4.4528940320014954e-01 9.7324389219284058e-01</leafValues></_></weakClassifiers></_></stages>
  <features>
    <_>
      <rects>
        <_>
          0 1 4 19 -1.</_>
        <_>
          2 1 2 19 2.</_></rects>
      <tilted>0</tilted></_>
    <_>
      <rects>
        <_>
          0 14 7 6 -1.</_>
        <_>
          0 17 7 3 2.</_></rects>
      <tilted>0</tilted></_>
    <_>
      <rects>
        <_>
          0 17 1 2 -1.</_>
        <_>
          0 18 1 1 2.</_></rects>
      <tilted>0</tilted></_>
    <_>
      <rects>
        <_>
          1 0 1 4 -1.</_>
        <_>
          1 2 1 2 2.</_></rects>
      <tilted>0</tilted></_>
    <_>
      <rects>
        <_>
          2 5 12 8 -1.</_>
        <_>
          8 5 6 8 2.</_></rects>
      <tilted>0</tilted></_>
    <_>
      <rects>
        <_>
          6 6 2 2 -1.</_>
        <_>
          6 6 1 1 2.</_>
        <_>
          7 7 1 1 2.</_></rects>
      <tilted>0</tilted></_>
    <_>
      <rects>
        <_>
          6 10 1 3 -1.</_>
        <_>
          6 11 1 1 3.</_></rects>
      <tilted>0</tilted></_>
    <_>
      <rects>
        <_>
          7 6 3 1 -1.</_>
        <_>
          8 6 1 1 3.</_></rects>
      <tilted>0</tilted></_>
    <_>
      <rects>
        <_>
          7 9 6 3 -1.</_>
        <_>
          9 10 2 1 9.</_></rects>
      <tilted>0</tilted></_>
    <_>
      <rects>
        <_>
          9 7 3 3 -1.</_>
        <_>
          10 8 1 1 9.</_></rects>
      <tilted>0</tilted></_>
    <_>
      <rects>
        <_>
          9 11 3 1 -1.</_>
        <_>
          10 12 1 1 3.</_></rects>
      <tilted>1</tilted></_>
    <_>
      <rects>
        <_>
          9 12 3 3 -1.</_>
        <_>
          10 13 1 1 9.</_></rects>
      <tilted>0</tilted></_>
    <_>
      <rects>
        <_>
          10 5 3 1 -1.</_>
        <_>
          11 5 1 1 3.</_></rects>
      <tilted>0</tilted></_>
    <_>
      <rects>
        <_>
          10 13 3 1 -1.</_>
        <_>
          11 13 1 1 3.</_></rects>
      <tilted>0</tilted></_>
    <_>
      <rects>
        <_>
          11 11 2 2 -1.</_>
        <_>
          11 11 1 1 2.</_>
        <_>
          12 12 1 1 2.</_></rects>
      <tilted>0</tilted></_>
    <_>
      <rects>
        <_>
          13 0 7 6 -1.</_>
        <_>
          13 3 7 3 2.</_></rects>
      <tilted>0</tilted></_>
    <_>
      <rects>
        <_>
          14 10 1 3 -1.</_>
        <_>
          14 11 1 1 3.</_></rects>
      <tilted>0</tilted></_>
    <_>
      <rects>
        <_>
          15 2 3 12 -1.</_>
        <_>
          16 3 1 12 3.</_></rects>
      <tilted>1</tilted></_>
    <_>
      <rects>
        <_>
          16 0 4 19 -1.</_>
        <_>
          18 0 2 19 2.</_></rects>
      <tilted>0</tilted></_></features></cascade>
</opencv_storage>
