<?xml version="1.0"?>
<opencv_storage>
<stage1>
  <maxWeakCount>5</maxWeakCount>
  <stageThreshold>-1.3624869287014008e-01</stageThreshold>
  <weakClassifiers>
    <_>
      <internalNodes>
        0 -1 68325 4.5475494116544724e-03</internalNodes>
      <leafValues>
        -6.3912308216094971e-01 9.3120390176773071e-01</leafValues></_>
    <_>
      <internalNodes>
        0 -1 90021 4.5327097177505493e-03</internalNodes>
      <leafValues>
        -4.8028343915939331e-01 9.1792553663253784e-01</leafValues></_>
    <_>
      <internalNodes>
        0 -1 9737 -3.7343172152759507e-05</internalNodes>
      <leafValues>
        -9.3160724639892578e-01 5.4524588584899902e-01</leafValues></_>
    <_>
      <internalNodes>
        0 -1 98823 4.5967153273522854e-03</internalNodes>
      <leafValues>
        -4.6110808849334717e-01 9.8283576965332031e-01</leafValues></_>
    <_>
      <internalNodes>
        0 -1 86004 -2.4018406867980957e-02</internalNodes>
      <leafValues>
        9.0523260831832886e-01 -4.6627962589263916e-01</leafValues></_></weakClassifiers></stage1>
</opencv_storage>
