<?xml version="1.0"?>
<opencv_storage>
<cascade>
  <stageType>BOOST</stageType>
  <featureType>HAAR</featureType>
  <height>20</height>
  <width>20</width>
  <stageParams>
    <boostType>GAB</boostType>
    <minHitRate>9.9900001287460327e-01</minHitRate>
    <maxFalseAlarm>5.0000000745058060e-02</maxFalseAlarm>
    <weightTrimRate>9.4999999999999996e-01</weightTrimRate>
    <maxDepth>1</maxDepth>
    <maxWeakCount>100</maxWeakCount></stageParams>
  <featureParams>
    <maxCatCount>0</maxCatCount>
    <featSize>1</featSize>
    <mode>ALL</mode></featureParams>
  <stageNum>3</stageNum>
  <stages>
    <!-- stage 0 -->
    <_>
      <maxWeakCount>5</maxWeakCount>
      <stageThreshold>-1.9385407865047455e-01</stageThreshold>
      <weakClassifiers>
        <_>
          <internalNodes>
            0 -1 9 1.3403914868831635e-02</internalNodes>
          <leafValues>
            -6.7636364698410034e-01 8.2666665315628052e-01</leafValues></_>
        <_>
          <internalNodes>
            0 -1 1 1.7597336322069168e-02</internalNodes>
          <leafValues>
            -9.6464782953262329e-01 5.4033559560775757e-01</leafValues></_>
        <_>
          <internalNodes>
            0 -1 5 3.9467401802539825e-03</internalNodes>
          <leafValues>
            -5.9503072500228882e-01 9.3227463960647583e-01</leafValues></_>
        <_>
          <internalNodes>
            0 -1 14 -6.4916042611002922e-03</internalNodes>
          <leafValues>
            9.6697556972503662e-01 -4.6122580766677856e-01</leafValues></_>
        <_>
          <internalNodes>
            0 -1 15 -5.0799723714590073e-02</internalNodes>
          <leafValues>
            9.9843055009841919e-01 -3.9917367696762085e-01</leafValues></_></weakClassifiers></_>
    <!-- stage 1 -->
    <_>
      <maxWeakCount>6</maxWeakCount>
      <stageThreshold>3.5019332170486450e-01</stageThreshold>
      <weakClassifiers>
        <_>
          <internalNodes>
            0 -1 12 3.4070063848048449e-03</internalNodes>
          <leafValues>
            -6.2676054239273071e-01 8.2407408952713013e-01</leafValues></_>
        <_>
          <internalNodes>
            0 -1 6 -5.0314976833760738e-03</internalNodes>
          <leafValues>
            9.0728998184204102e-01 -5.5877178907394409e-01</leafValues></_>
        <_>
          <internalNodes>
            0 -1 2 -2.5018304586410522e-02</internalNodes>
          <leafValues>
            5.4246079921722412e-01 -9.0059733390808105e-01</leafValues></_>
        <_>
          <internalNodes>
            0 -1 8 4.7318153083324432e-03</internalNodes>
          <leafValues>
            -4.9709528684616089e-01 9.0918564796447754e-01</leafValues></_>
        <_>
          <internalNodes>
            0 -1 13 4.5171156525611877e-03</internalNodes>
          <leafValues>
            -5.0736409425735474e-01 9.9029141664505005e-01</leafValues></_>
        <_>
          <internalNodes>
            0 -1 4 1.9786018878221512e-02</internalNodes>
          <leafValues>
            5.9144330024719238e-01 -9.5824015140533447e-01</leafValues></_></weakClassifiers></_>
    <!-- stage 2 -->
    <_>
      <maxWeakCount>5</maxWeakCount>
      <stageThreshold>3.2552310824394226e-01</stageThreshold>
      <weakClassifiers>
        <_>
          <internalNodes>
            0 -1 0 -4.7097811475396156e-03</internalNodes>
          <leafValues>
            -9.7583079338073730e-01 4.8281016945838928e-01</leafValues></_>
        <_>
          <internalNodes>
            0 -1 11 5.3000631742179394e-03</internalNodes>
          <leafValues>
            -5.9096384048461914e-01 8.4041500091552734e-01</leafValues></_>
        <_>
          <internalNodes>
            0 -1 3 -2.6187943294644356e-02</internalNodes>
          <leafValues>
            -9.7150349617004395e-01 4.9603253602981567e-01</leafValues></_>
        <_>
          <internalNodes>
            0 -1 10 -6.0654561966657639e-03</internalNodes>
          <leafValues>
            9.3128049373626709e-01 -5.1465058326721191e-01</leafValues></_>
        <_>
          <internalNodes>
            0 -1 7 -2.0896453410387039e-02</internalNodes>
          <leafValues>
            -9.7908401489257812e-01 5.1290094852447510e-01</leafValues></_></weakClassifiers></_></stages>
  <features>
    <_>
      <rects>
        <_>
          0 0 20 16 -1.</_>
        <_>
          0 8 20 8 2.</_></rects>
      <tilted>0</tilted></_>
    <_>
      <rects>
        <_>
          0 15 20 5 -1.</_>
        <_>
          5 15 10 5 2.</_></rects>
      <tilted>0</tilted></_>
    <_>
      <rects>
        <_>
          1 14 19 6 -1.</_>
        <_>
          1 17 19 3 2.</_></rects>
      <tilted>0</tilted></_>
    <_>
      <rects>
        <_>
          5 5 10 4 -1.</_>
        <_>
          5 5 5 4 2.</_></rects>
      <tilted>1</tilted></_>
    <_>
      <rects>
        <_>
          6 4 8 8 -1.</_>
        <_>
          6 8 8 4 2.</_></rects>
      <tilted>0</tilted></_>
    <_>
      <rects>
        <_>
          6 8 3 1 -1.</_>
        <_>
          7 8 1 1 3.</_></rects>
      <tilted>0</tilted></_>
    <_>
      <rects>
        <_>
          6 10 1 3 -1.</_>
        <_>
          6 11 1 1 3.</_></rects>
      <tilted>0</tilted></_>
    <_>
      <rects>
        <_>
          7 5 8 12 -1.</_>
        <_>
          7 11 8 6 2.</_></rects>
      <tilted>0</tilted></_>
    <_>
      <rects>
        <_>
          7 6 3 1 -1.</_>
        <_>
          8 6 1 1 3.</_></rects>
      <tilted>0</tilted></_>
    <_>
      <rects>
        <_>
          9 7 3 3 -1.</_>
        <_>
          10 8 1 1 9.</_></rects>
      <tilted>0</tilted></_>
    <_>
      <rects>
        <_>
          9 14 3 1 -1.</_>
        <_>
          10 14 1 1 3.</_></rects>
      <tilted>0</tilted></_>
    <_>
      <rects>
        <_>
          10 5 3 1 -1.</_>
        <_>
          11 5 1 1 3.</_></rects>
      <tilted>0</tilted></_>
    <_>
      <rects>
        <_>
          10 10 1 3 -1.</_>
        <_>
          10 11 1 1 3.</_></rects>
      <tilted>0</tilted></_>
    <_>
      <rects>
        <_>
          11 11 2 2 -1.</_>
        <_>
          11 11 1 1 2.</_>
        <_>
          12 12 1 1 2.</_></rects>
      <tilted>0</tilted></_>
    <_>
      <rects>
        <_>
          13 7 1 3 -1.</_>
        <_>
          13 8 1 1 3.</_></rects>
      <tilted>0</tilted></_>
    <_>
      <rects>
        <_>
          16 2 3 13 -1.</_>
        <_>
          17 3 1 13 3.</_></rects>
      <tilted>1</tilted></_></features></cascade>
</opencv_storage>
