<?xml version="1.0"?>
<opencv_storage>
<stage2>
  <maxWeakCount>5</maxWeakCount>
  <stageThreshold>3.2552310824394226e-01</stageThreshold>
  <weakClassifiers>
    <_>
      <internalNodes>
        0 -1 973 -4.7097811475396156e-03</internalNodes>
      <leafValues>
        -9.7583079338073730e-01 4.8281016945838928e-01</leafValues></_>
    <_>
      <internalNodes>
        0 -1 90021 5.3000631742179394e-03</internalNodes>
      <leafValues>
        -5.9096384048461914e-01 8.4041500091552734e-01</leafValues></_>
    <_>
      <internalNodes>
        0 -1 51377 -2.6187943294644356e-02</internalNodes>
      <leafValues>
        -9.7150349617004395e-01 4.9603253602981567e-01</leafValues></_>
    <_>
      <internalNodes>
        0 -1 86430 -6.0654561966657639e-03</internalNodes>
      <leafValues>
        9.3128049373626709e-01 -5.1465058326721191e-01</leafValues></_>
    <_>
      <internalNodes>
        0 -1 68229 -2.0896453410387039e-02</internalNodes>
      <leafValues>
        -9.7908401489257812e-01 5.1290094852447510e-01</leafValues></_></weakClassifiers></stage2>
</opencv_storage>
