<?xml version="1.0"?>
<opencv_storage>
<cascade>
  <stageType>BOOST</stageType>
  <featureType>HAAR</featureType>
  <height>20</height>
  <width>20</width>
  <stageParams>
    <boostType>GAB</boostType>
    <minHitRate>9.9900001287460327e-01</minHitRate>
    <maxFalseAlarm>5.0000000745058060e-02</maxFalseAlarm>
    <weightTrimRate>9.4999999999999996e-01</weightTrimRate>
    <maxDepth>1</maxDepth>
    <maxWeakCount>100</maxWeakCount></stageParams>
  <featureParams>
    <maxCatCount>0</maxCatCount>
    <featSize>1</featSize>
    <mode>ALL</mode></featureParams>
  <stageNum>3</stageNum>
  <stages>
    <!-- stage 0 -->
    <_>
      <maxWeakCount>7</maxWeakCount>
      <stageThreshold>-8.4236025810241699e-02</stageThreshold>
      <weakClassifiers>
        <_>
          <internalNodes>
            0 -1 6 1.9109690189361572e-01</internalNodes>
          <leafValues>
            -7.9888266324996948e-01 9.2656588554382324e-01</leafValues></_>
        <_>
          <internalNodes>
            0 -1 5 1.7556446790695190e-01</internalNodes>
          <leafValues>
            -4.7769305109977722e-01 9.0684825181961060e-01</leafValues></_>
        <_>
          <internalNodes>
            0 -1 19 -2.0065810531377792e-05</internalNodes>
          <leafValues>
            -1. 4.7671934962272644e-01</leafValues></_>
        <_>
          <internalNodes>
            0 -1 10 7.1512453258037567e-02</internalNodes>
          <leafValues>
            -5.8024233579635620e-01 7.9807949066162109e-01</leafValues></_>
        <_>
          <internalNodes>
            0 -1 17 2.4872169888112694e-05</internalNodes>
          <leafValues>
            4.4840550422668457e-01 -9.5196658372879028e-01</leafValues></_>
        <_>
          <internalNodes>
            0 -1 18 -3.2344574719900265e-05</internalNodes>
          <leafValues>
            -9.5676410198211670e-01 3.8195484876632690e-01</leafValues></_>
        <_>
          <internalNodes>
            0 -1 11 -5.2131600677967072e-02</internalNodes>
          <leafValues>
            4.6550238132476807e-01 -7.2999751567840576e-01</leafValues></_></weakClassifiers></_>
    <!-- stage 1 -->
    <_>
      <maxWeakCount>9</maxWeakCount>
      <stageThreshold>-7.3582231998443604e-01</stageThreshold>
      <weakClassifiers>
        <_>
          <internalNodes>
            0 -1 14 5.2996363490819931e-02</internalNodes>
          <leafValues>
            -5.0967741012573242e-01 8.3157896995544434e-01</leafValues></_>
        <_>
          <internalNodes>
            0 -1 20 3.2402342185378075e-05</internalNodes>
          <leafValues>
            4.2660641670227051e-01 -9.6462416648864746e-01</leafValues></_>
        <_>
          <internalNodes>
            0 -1 1 2.0795043383259326e-05</internalNodes>
          <leafValues>
            2.6435622572898865e-01 -1.</leafValues></_>
        <_>
          <internalNodes>
            0 -1 12 -3.7344401789596304e-05</internalNodes>
          <leafValues>
            -9.3624734878540039e-01 2.3547995090484619e-01</leafValues></_>
        <_>
          <internalNodes>
            0 -1 8 5.6621182709932327e-02</internalNodes>
          <leafValues>
            3.5235562920570374e-01 -9.3512588739395142e-01</leafValues></_>
        <_>
          <internalNodes>
            0 -1 20 -2.4294793547596782e-05</internalNodes>
          <leafValues>
            -8.7403517961502075e-01 2.3616811633110046e-01</leafValues></_>
        <_>
          <internalNodes>
            0 -1 21 -6.0612624511122704e-03</internalNodes>
          <leafValues>
            8.4247183799743652e-01 -4.1592386364936829e-01</leafValues></_>
        <_>
          <internalNodes>
            0 -1 13 3.5335826396476477e-05</internalNodes>
          <leafValues>
            3.2894998788833618e-01 -9.7029310464859009e-01</leafValues></_>
        <_>
          <internalNodes>
            0 -1 7 -2.1888513118028641e-02</internalNodes>
          <leafValues>
            7.4934929609298706e-01 -4.8241010308265686e-01</leafValues></_></weakClassifiers></_>
    <!-- stage 2 -->
    <_>
      <maxWeakCount>8</maxWeakCount>
      <stageThreshold>-1.3081276789307594e-02</stageThreshold>
      <weakClassifiers>
        <_>
          <internalNodes>
            0 -1 2 -1.2497620284557343e-01</internalNodes>
          <leafValues>
            -9.6088021993637085e-01 6.6497462987899780e-01</leafValues></_>
        <_>
          <internalNodes>
            0 -1 9 2.1434560418128967e-01</internalNodes>
          <leafValues>
            -6.8466049432754517e-01 6.0109770298004150e-01</leafValues></_>
        <_>
          <internalNodes>
            0 -1 15 -1.3331441732589155e-04</internalNodes>
          <leafValues>
            -7.9238110780715942e-01 3.6664959788322449e-01</leafValues></_>
        <_>
          <internalNodes>
            0 -1 4 -5.4913647472858429e-03</internalNodes>
          <leafValues>
            8.1379336118698120e-01 -3.3283096551895142e-01</leafValues></_>
        <_>
          <internalNodes>
            0 -1 22 -3.7036943831481040e-04</internalNodes>
          <leafValues>
            -9.1824054718017578e-01 3.5830253362655640e-01</leafValues></_>
        <_>
          <internalNodes>
            0 -1 16 9.4797715544700623e-02</internalNodes>
          <leafValues>
            2.5867116451263428e-01 -9.6761959791183472e-01</leafValues></_>
        <_>
          <internalNodes>
            0 -1 0 -6.2086051329970360e-03</internalNodes>
          <leafValues>
            6.4742630720138550e-01 -4.7306832671165466e-01</leafValues></_>
        <_>
          <internalNodes>
            0 -1 3 -4.6296179789351299e-05</internalNodes>
          <leafValues>
            -1. 3.2502567768096924e-01</leafValues></_></weakClassifiers></_></stages>
  <features>
    <_>
      <rects>
        <_>
          0 5 3 10 -1.</_>
        <_>
          1 5 1 10 3.</_></rects>
      <tilted>0</tilted></_>
    <_>
      <rects>
        <_>
          0 16 1 4 -1.</_>
        <_>
          0 18 1 2 2.</_></rects>
      <tilted>0</tilted></_>
    <_>
      <rects>
        <_>
          1 0 18 20 -1.</_>
        <_>
          1 10 18 10 2.</_></rects>
      <tilted>0</tilted></_>
    <_>
      <rects>
        <_>
          1 1 2 2 -1.</_>
        <_>
          1 2 2 1 2.</_></rects>
      <tilted>0</tilted></_>
    <_>
      <rects>
        <_>
          1 2 2 14 -1.</_>
        <_>
          2 2 1 14 2.</_></rects>
      <tilted>0</tilted></_>
    <_>
      <rects>
        <_>
          1 4 13 12 -1.</_>
        <_>
          1 8 13 4 3.</_></rects>
      <tilted>0</tilted></_>
    <_>
      <rects>
        <_>
          2 7 15 6 -1.</_>
        <_>
          7 9 5 2 9.</_></rects>
      <tilted>0</tilted></_>
    <_>
      <rects>
        <_>
          4 8 6 3 -1.</_>
        <_>
          6 9 2 1 9.</_></rects>
      <tilted>0</tilted></_>
    <_>
      <rects>
        <_>
          6 0 8 20 -1.</_>
        <_>
          6 10 8 10 2.</_></rects>
      <tilted>0</tilted></_>
    <_>
      <rects>
        <_>
          6 5 9 9 -1.</_>
        <_>
          9 8 3 3 9.</_></rects>
      <tilted>0</tilted></_>
    <_>
      <rects>
        <_>
          7 7 6 6 -1.</_>
        <_>
          9 9 2 2 9.</_></rects>
      <tilted>0</tilted></_>
    <_>
      <rects>
        <_>
          7 8 10 12 -1.</_>
        <_>
          7 14 10 6 2.</_></rects>
      <tilted>0</tilted></_>
    <_>
      <rects>
        <_>
          8 0 4 18 -1.</_>
        <_>
          8 9 4 9 2.</_></rects>
      <tilted>0</tilted></_>
    <_>
      <rects>
        <_>
          8 19 2 1 -1.</_>
        <_>
          9 19 1 1 2.</_></rects>
      <tilted>0</tilted></_>
    <_>
      <rects>
        <_>
          9 6 2 9 -1.</_>
        <_>
          9 9 2 3 3.</_></rects>
      <tilted>0</tilted></_>
    <_>
      <rects>
        <_>
          9 15 1 4 -1.</_>
        <_>
          9 17 1 2 2.</_></rects>
      <tilted>0</tilted></_>
    <_>
      <rects>
        <_>
          13 1 7 12 -1.</_>
        <_>
          13 1 7 6 2.</_></rects>
      <tilted>1</tilted></_>
    <_>
      <rects>
        <_>
          14 19 6 1 -1.</_>
        <_>
          16 19 2 1 3.</_></rects>
      <tilted>0</tilted></_>
    <_>
      <rects>
        <_>
          15 19 4 1 -1.</_>
        <_>
          16 19 2 1 2.</_></rects>
      <tilted>0</tilted></_>
    <_>
      <rects>
        <_>
          16 0 3 2 -1.</_>
        <_>
          16 1 3 1 2.</_></rects>
      <tilted>0</tilted></_>
    <_>
      <rects>
        <_>
          16 19 4 1 -1.</_>
        <_>
          18 19 2 1 2.</_></rects>
      <tilted>0</tilted></_>
    <_>
      <rects>
        <_>
          18 6 2 6 -1.</_>
        <_>
          18 6 1 3 2.</_>
        <_>
          19 9 1 3 2.</_></rects>
      <tilted>0</tilted></_>
    <_>
      <rects>
        <_>
          19 0 1 6 -1.</_>
        <_>
          19 3 1 3 2.</_></rects>
      <tilted>0</tilted></_></features></cascade>
</opencv_storage>
