<?xml version="1.0"?>
<opencv_storage>
<cascade>
  <stageType>BOOST</stageType>
  <featureType>HAAR</featureType>
  <height>20</height>
  <width>20</width>
  <stageParams>
    <boostType>GAB</boostType>
    <minHitRate>9.9900001287460327e-01</minHitRate>
    <maxFalseAlarm>5.0000000745058060e-02</maxFalseAlarm>
    <weightTrimRate>9.4999999999999996e-01</weightTrimRate>
    <maxDepth>1</maxDepth>
    <maxWeakCount>100</maxWeakCount></stageParams>
  <featureParams>
    <maxCatCount>0</maxCatCount>
    <featSize>1</featSize>
    <mode>ALL</mode></featureParams>
  <stageNum>3</stageNum>
  <stages>
    <!-- stage 0 -->
    <_>
      <maxWeakCount>1</maxWeakCount>
      <stageThreshold>1.</stageThreshold>
      <weakClassifiers>
        <_>
          <internalNodes>
            0 -1 1 2.6672720909118652e-01</internalNodes>
          <leafValues>
            -1. 1.</leafValues></_></weakClassifiers></_>
    <!-- stage 1 -->
    <_>
      <maxWeakCount>3</maxWeakCount>
      <stageThreshold>6.8166142702102661e-01</stageThreshold>
      <weakClassifiers>
        <_>
          <internalNodes>
            0 -1 6 2.6396679878234863e-01</internalNodes>
          <leafValues>
            -9.8744767904281616e-01 9.0421456098556519e-01</leafValues></_>
        <_>
          <internalNodes>
            0 -1 3 -7.6855748891830444e-02</internalNodes>
          <leafValues>
            8.4063637256622314e-01 -9.8543280363082886e-01</leafValues></_>
        <_>
          <internalNodes>
            0 -1 4 -5.4700873792171478e-02</internalNodes>
          <leafValues>
            8.2847279310226440e-01 -9.3848711252212524e-01</leafValues></_></weakClassifiers></_>
    <!-- stage 2 -->
    <_>
      <maxWeakCount>4</maxWeakCount>
      <stageThreshold>-2.0209655165672302e-01</stageThreshold>
      <weakClassifiers>
        <_>
          <internalNodes>
            0 -1 2 1.1476631276309490e-02</internalNodes>
          <leafValues>
            -9.1897654533386230e-01 8.1167608499526978e-01</leafValues></_>
        <_>
          <internalNodes>
            0 -1 7 -6.2742698937654495e-03</internalNodes>
          <leafValues>
            9.2184215784072876e-01 -8.1209409236907959e-01</leafValues></_>
        <_>
          <internalNodes>
            0 -1 0 -5.7355146855115891e-03</internalNodes>
          <leafValues>
            7.6758229732513428e-01 -8.8043773174285889e-01</leafValues></_>
        <_>
          <internalNodes>
            0 -1 5 -4.0697184886084870e-05</internalNodes>
          <leafValues>
            -1. 6.7875921726226807e-01</leafValues></_></weakClassifiers></_></stages>
  <features>
    <_>
      <rects>
        <_>
          0 4 2 12 -1.</_>
        <_>
          0 7 2 6 2.</_></rects>
      <tilted>0</tilted></_>
    <_>
      <rects>
        <_>
          0 6 18 9 -1.</_>
        <_>
          0 9 18 3 3.</_></rects>
      <tilted>0</tilted></_>
    <_>
      <rects>
        <_>
          0 9 6 2 -1.</_>
        <_>
          3 9 3 2 2.</_></rects>
      <tilted>0</tilted></_>
    <_>
      <rects>
        <_>
          0 13 20 5 -1.</_>
        <_>
          5 13 10 5 2.</_></rects>
      <tilted>0</tilted></_>
    <_>
      <rects>
        <_>
          1 2 18 3 -1.</_>
        <_>
          7 2 6 3 3.</_></rects>
      <tilted>0</tilted></_>
    <_>
      <rects>
        <_>
          4 5 12 1 -1.</_>
        <_>
          7 5 6 1 2.</_></rects>
      <tilted>0</tilted></_>
    <_>
      <rects>
        <_>
          5 5 10 9 -1.</_>
        <_>
          5 8 10 3 3.</_></rects>
      <tilted>0</tilted></_>
    <_>
      <rects>
        <_>
          9 11 1 2 -1.</_>
        <_>
          9 12 1 1 2.</_></rects>
      <tilted>0</tilted></_></features></cascade>
</opencv_storage>
